SVM-light Version V6.02
0 # kernel type
3 # kernel parameter -d 
1 # kernel parameter -g 
1 # kernel parameter -s 
1 # kernel parameter -r 
empty# kernel parameter -u 
13 # highest feature index 
270 # number of training documents 
117 # number of support vectors plus 1 
-0.55877151 # threshold b, each following line is a SV (starting with alpha*y)
-0.12345879654213356979575166860741 1:0.58333302 2:-1 3:0.33333299 4:-0.60377401 5:1 6:-1 7:1 8:0.35877901 9:-1 10:-0.48387101 12:-1 13:1 #
-0.12345879654213356979575166860741 1:0.45833299 2:1 3:1 4:-0.358491 5:-0.37442899 6:-1 7:-1 8:-0.48091599 9:1 10:-0.93548399 12:-0.33333299 13:1 #
-0.12345879654213356979575166860741 1:0.875 2:-1 3:-0.33333299 4:-0.50943398 5:-0.34703201 6:-1 7:1 8:-0.236641 9:1 10:-0.93548399 11:-1 12:-0.33333299 13:-1 #
-0.12345879654213356979575166860741 1:0.5 2:1 3:1 4:-0.50943398 5:-0.76712298 6:-1 7:-1 8:0.053435098 9:-1 10:-0.87096798 11:-1 12:-1 13:1 #
-0.12345879654213356979575166860741 1:0.25 2:1 3:1 4:-0.22641499 5:-0.50684899 6:-1 7:-1 8:0.374046 9:-1 10:-0.83871001 12:-1 13:1 #
0.12345879654213356979575166860741 1:0.041666701 2:1 3:1 4:-0.69811302 5:-0.63470298 6:-1 7:1 8:-0.43511501 9:1 10:-1 12:-0.33333299 13:-1 #
0.12345879654213356979575166860741 1:0.166667 2:1 3:-0.33333299 4:-0.43396199 5:-0.383562 6:-1 7:-1 8:0.068702303 9:-1 10:-0.90322602 11:-1 12:-1 13:1 #
0.12345879654213356979575166860741 1:0.125 2:1 3:0.33333299 4:-0.320755 5:-0.40639299 6:1 7:1 8:0.083969504 9:1 10:-0.80645198 12:-0.33333299 13:0.5 #
0.12345879654213356979575166860741 1:0.208333 2:1 3:0.33333299 4:-0.66037703 5:-0.525114 6:-1 7:1 8:0.43511501 9:-1 10:-0.19354799 12:-0.33333299 13:1 #
-0.12345879654213356979575166860741 1:-0.083333299 2:-1 3:0.33333299 4:-0.132075 5:-0.16895001 6:-1 7:1 8:0.083969504 9:-1 10:-0.51612902 11:-1 12:-0.33333299 13:-1 #
-0.12345879654213356979575166860741 2:1 3:0.33333299 4:-0.320755 5:-0.45205501 6:1 7:1 8:0.55725199 9:-1 10:-1 11:-1 12:1 13:-1 #
0.12345879654213356979575166860741 1:-0.083333299 2:-1 3:1 4:-0.320755 5:-0.182648 6:-1 7:-1 8:0.083969504 9:1 10:-0.612903 12:-1 13:1 #
-0.12345879654213356979575166860741 1:0.208333 2:1 3:0.33333299 4:-0.79245299 5:-0.47945201 6:-1 7:1 8:0.267176 9:1 10:-0.80645198 12:-1 13:1 #
-0.12345879654213356979575166860741 1:-0.33333299 2:1 3:1 4:-0.81132102 5:-0.62557101 6:-1 7:1 8:0.17557301 9:1 10:-0.032258101 12:-1 13:-1 #
-0.12345879654213356979575166860741 1:0.25 2:1 3:-1 4:0.58490598 5:-0.342466 6:-1 7:1 8:0.12977099 9:-1 10:0.354839 11:1 12:-1 13:1 #
-0.12345879654213356979575166860741 2:1 3:1 4:-0.094339602 5:-0.54337901 6:-1 7:1 8:-0.38931301 9:1 10:-1 11:-1 12:-1 13:1 #
-0.12345879654213356979575166860741 1:0.41666701 2:1 3:-1 4:-0.037735801 5:-0.51141602 6:1 7:1 8:0.20610701 9:-1 10:-0.25806499 11:1 12:-1 13:0.5 #
0.12345879654213356979575166860741 1:0.45833299 2:1 3:0.33333299 4:-0.132075 5:-0.045662101 6:-1 7:-1 8:0.328244 9:-1 10:-1 11:-1 12:-1 13:-1 #
0.12345879654213356979575166860741 1:0.33333299 2:-1 3:1 4:-0.320755 5:-0.068493202 6:-1 7:1 8:0.49618301 9:-1 10:-1 11:-1 12:-1 13:-1 #
0.12345879654213356979575166860741 1:0.25 2:1 3:-1 4:0.24528299 5:-0.328767 6:-1 7:1 8:-0.17557301 9:-1 10:-1 11:-1 12:-1 13:-1 #
0.12345879654213356979575166860741 1:-0.25 2:1 3:0.33333299 4:-0.73584902 5:-0.46575299 6:-1 7:-1 8:0.236641 9:-1 10:-1 11:-1 12:-1 13:-1 #
0.12345879654213356979575166860741 1:0.208333 2:-1 3:-0.33333299 4:-0.20754699 5:-0.118721 6:1 7:1 8:0.236641 9:-1 10:-1 11:-1 12:0.33333299 13:-1 #
-0.12345879654213356979575166860741 1:0.58333302 2:-1 3:1 4:-0.77358502 5:-0.557078 6:-1 7:-1 8:0.083969504 9:-1 10:-0.90322602 11:-1 12:0.33333299 13:-1 #
-0.050651409651167655923131860618014 1:-0.375 2:1 3:-0.33333299 4:-0.50943398 5:-0.37442899 6:-1 7:-1 8:0.55725199 9:-1 10:-1 11:-1 12:-1 13:1 #
-0.12345879654213356979575166860741 1:-0.208333 2:1 3:0.33333299 4:-0.43396199 5:-0.41095901 6:1 7:-1 8:0.58778602 9:-1 10:-1 11:-1 12:0.33333299 13:-1 #
-0.12345879654213356979575166860741 1:-0.041666701 2:1 3:1 4:-0.73584902 5:-0.51141602 6:1 7:-1 8:0.16030499 9:-1 10:-0.96774203 11:-1 12:1 13:1 #
-0.12345879654213356979575166860741 2:1 3:0.33333299 4:-0.320755 5:-0.67579901 6:1 7:1 8:0.236641 9:-1 10:-0.612903 11:1 12:-1 13:-1 #
0.12345879654213356979575166860741 1:-0.625 2:1 3:-1 4:-0.50943398 5:-0.52054799 6:-1 7:-1 8:0.69465601 9:1 10:0.225806 12:-1 13:1 #
0.12345879654213356979575166860741 1:0.375 2:-1 3:0.33333299 4:-0.320755 5:-0.37442899 6:-1 7:-1 8:-0.60305297 9:-1 10:-0.612903 12:-0.33333299 13:1 #
0.12345879654213356979575166860741 1:0.45833299 2:1 3:0.33333299 4:-0.41509399 5:-0.16438399 6:-1 7:-1 8:-0.083969504 9:1 10:-0.41935501 12:-1 13:1 #
0.12345879654213356979575166860741 1:-0.208333 2:1 3:-0.33333299 4:-0.69811302 5:-0.52968001 6:-1 7:-1 8:0.48091599 9:-1 10:-0.67741901 11:1 12:-1 13:1 #
-0.12345879654213356979575166860741 1:-0.54166698 2:1 3:-1 4:-0.132075 5:-0.66666698 6:-1 7:-1 8:0.63358802 9:1 10:-0.54838699 11:-1 12:-1 13:1 #
-0.12345879654213356979575166860741 1:0.166667 2:1 3:1 4:-0.69811302 5:-0.657534 6:-1 7:-1 8:-0.16030499 9:1 10:-0.51612902 12:-1 13:0.5 #
0.12345879654213356979575166860741 1:-0.25 2:1 3:1 4:-0.69811302 5:-0.319635 6:-1 7:1 8:-0.28244299 9:1 10:-0.67741901 12:-0.33333299 13:-1 #
-0.12345879654213356979575166860741 1:0.166667 2:1 3:1 4:-0.28301901 5:-0.63013703 6:-1 7:-1 8:0.48091599 9:1 10:-1 11:-1 12:-1 13:1 #
0.12345879654213356979575166860741 1:0.5 2:1 3:-1 4:-0.169811 5:-0.287671 6:1 7:1 8:0.572519 9:-1 10:-0.54838699 12:-0.33333299 13:-1 #
0.12345879654213356979575166860741 1:0.125 2:1 3:1 4:-0.41509399 5:-0.43835601 6:1 7:1 8:0.114504 9:1 10:-0.612903 12:-0.33333299 13:-1 #
-0.12345879654213356979575166860741 1:-0.083333299 2:1 3:1 4:-0.132075 5:-0.383562 6:-1 7:1 8:0.75572503 9:1 10:-1 11:-1 12:-1 13:-1 #
-0.12345879654213356979575166860741 1:-0.45833299 2:1 3:-1 4:0.018867901 5:-0.46118701 6:-1 7:1 8:0.63358802 9:-1 10:-0.74193501 11:-1 12:0.33333299 13:-1 #
-0.11666180783247159791216063240427 1:-0.66666698 2:1 3:0.33333299 4:-0.320755 5:-0.43379 6:-1 7:-1 8:0.77099198 9:-1 10:0.129032 11:1 12:-1 13:-1 #
-0.026506546560452148852959908253979 1:-0.083333299 2:1 3:0.33333299 4:-0.41509399 5:-0.45662099 6:1 7:1 8:0.45038199 9:-1 10:-0.225806 12:-1 13:-1 #
0.12345879654213356979575166860741 1:0.58333302 2:1 3:1 4:-0.50943398 5:-0.49315101 6:-1 7:-1 8:-1 9:-1 10:-0.67741901 12:-1 13:-1 #
0.12345879654213356979575166860741 1:-0.54166698 2:1 3:1 4:0.094339602 5:-0.557078 6:-1 7:-1 8:0.679389 9:-1 10:-1 11:-1 12:-1 13:1 #
0.12345879654213356979575166860741 1:0.208333 2:1 3:1 4:-0.886792 5:-0.50684899 6:-1 7:-1 8:0.29771 9:-1 10:-0.96774203 11:-1 12:-0.33333299 13:1 #
-0.12345879654213356979575166860741 1:-0.41666701 2:1 3:1 4:-0.69811302 5:-0.61187202 6:-1 7:-1 8:0.374046 9:-1 10:-1 11:-1 12:-1 13:1 #
-0.12345879654213356979575166860741 1:0.375 2:1 3:0.33333299 4:-0.320755 5:-0.52054799 6:-1 7:-1 8:0.14503799 9:-1 10:-0.41935501 12:1 13:1 #
-0.12345879654213356979575166860741 1:-0.083333299 2:1 3:0.33333299 4:-1 5:-0.53881299 6:-1 7:-1 8:0.267176 9:1 10:-1 11:-1 12:-0.33333299 13:1 #
0.12345879654213356979575166860741 1:0.375 2:-1 3:1 4:-0.169811 5:-0.232877 6:1 7:-1 8:-0.46564901 9:-1 10:-0.387097 12:1 13:-1 #
0.12345879654213356979575166860741 1:0.208333 2:1 3:-0.33333299 4:-0.50943398 5:-0.278539 6:-1 7:1 8:0.35877901 9:-1 10:-0.41935501 12:-1 13:-1 #
-0.12345879654213356979575166860741 1:0.375 2:-1 3:1 4:-0.132075 5:0.223744 6:-1 7:1 8:0.31297699 9:-1 10:-0.612903 12:-1 13:-1 #
-0.12345879654213356979575166860741 1:0.041666701 2:1 3:0.33333299 4:-0.41509399 5:-0.328767 6:-1 7:1 8:0.236641 9:-1 10:-0.83871001 11:1 12:-0.33333299 13:-1 #
-0.10427440670824705826191802771064 1:-0.45833299 2:-1 3:1 4:-0.84905702 5:-0.36529699 6:-1 7:1 8:-0.22137401 9:-1 10:-0.80645198 12:-1 13:-1 #
-0.0362220701744526696330694903736 1:0.166667 2:-1 3:1 4:-0.50943398 5:0.041095901 6:-1 7:-1 8:0.40458 9:1 10:-0.80645198 11:-1 12:-1 13:-1 #
0.12345879654213356979575166860741 1:-0.041666701 2:1 3:1 4:-0.41509399 5:-0.607306 6:-1 7:-1 8:0.48091599 9:-1 10:-0.67741901 11:-1 12:0.33333299 13:1 #
0.058510511079462146355467666580807 1:0.25 2:1 3:1 4:-0.132075 5:-0.76712298 6:-1 7:-1 8:0.38931301 9:1 10:-1 11:-1 12:-0.33333299 13:1 #
0.12345879654213356979575166860741 1:-0.083333299 2:1 3:1 4:-0.132075 5:-0.21004599 6:-1 7:-1 8:0.55725199 9:1 10:-0.48387101 11:-1 12:-1 13:1 #
0.038425017735682187591805814008694 1:0.5 2:1 3:1 4:-0.69811302 5:-0.442922 6:-1 7:1 8:0.328244 9:-1 10:-0.80645198 11:-1 12:0.33333299 13:0.5 #
-0.12345879654213356979575166860741 1:0.33333299 2:1 3:0.33333299 4:0.056603801 5:-0.46575299 6:1 7:-1 8:0.0076335901 9:1 10:-0.67741901 12:-1 13:-1 #
0.12345879654213356979575166860741 1:0.29166701 2:-1 3:1 4:0.20754699 5:-0.182648 6:-1 7:1 8:0.374046 9:-1 10:-1 11:-1 12:-1 13:-1 #
0.12345879654213356979575166860741 1:0.58333302 2:1 3:1 4:-0.41509399 5:-0.41552499 6:1 7:-1 8:0.40458 9:-1 10:-0.93548399 12:0.33333299 13:1 #
0.12345879654213356979575166860741 1:0.29166701 2:1 3:0.33333299 4:-0.132075 5:-0.73059398 6:-1 7:1 8:0.28244299 9:-1 10:-0.032258101 12:-1 13:-1 #
-0.12345879654213356979575166860741 1:0.54166698 2:1 3:1 4:0.24528299 5:-0.53424698 6:-1 7:1 8:0.022900799 9:-1 10:-0.25806499 11:-1 12:-1 13:0.5 #
-0.12345879654213356979575166860741 1:0.041666701 2:1 3:0.33333299 4:0.056603801 5:-0.51598197 6:-1 7:1 8:0.43511501 9:-1 10:-0.48387101 11:-1 12:-1 13:1 #
0.12345879654213356979575166860741 1:0.375 2:-1 3:1 4:0.056603801 5:-0.46118701 6:-1 7:-1 8:0.267176 9:1 10:-0.54838699 12:-1 13:-1 #
0.12345879654213356979575166860741 1:0.25 2:-1 3:1 4:0.50943398 5:-0.43835601 6:-1 7:-1 8:0.0992366 9:1 10:-1 12:-1 13:-1 #
0.12345879654213356979575166860741 1:-0.041666701 2:1 3:1 4:-0.66037703 5:-0.525114 6:-1 7:-1 8:0.35877901 9:-1 10:-1 11:-1 12:-0.33333299 13:-1 #
-0.12345879654213356979575166860741 1:0.45833299 2:-1 3:1 4:-0.320755 5:-0.191781 6:-1 7:-1 8:-0.22137401 9:-1 10:-0.354839 12:0.33333299 13:-1 #
-0.12345879654213356979575166860741 1:0.45833299 2:-1 3:1 4:0.62264198 5:-0.091324203 6:-1 7:-1 8:0.267176 9:1 10:-1 11:-1 12:-1 13:-1 #
-0.12345879654213356979575166860741 1:-0.083333299 2:1 3:0.33333299 4:-0.886792 5:-0.56164402 6:-1 7:-1 8:0.0992366 9:1 10:-0.612903 12:-1 13:-1 #
-0.12345879654213356979575166860741 1:-0.5 2:1 3:-0.33333299 4:-0.22641499 5:-0.64840198 6:-1 7:-1 8:-0.068702303 9:-1 10:-1 12:-1 13:0.5 #
0.12345879654213356979575166860741 1:0.25 2:1 3:-1 4:0.43396199 5:-0.26027399 6:-1 7:1 8:0.34351099 9:-1 10:-0.93548399 12:-1 13:1 #
0.12345879654213356979575166860741 1:-0.5 2:1 3:1 4:-0.69811302 5:-0.78995401 6:-1 7:1 8:0.328244 9:-1 10:-1 11:-1 12:-1 13:1 #
0.12345879654213356979575166860741 1:-0.208333 2:1 3:1 4:-0.43396199 5:-0.32420099 6:-1 7:1 8:0.45038199 9:-1 10:-0.83871001 12:-1 13:1 #
-0.12345879654213356979575166860741 1:0.041666701 2:1 3:0.33333299 4:-0.50943398 5:-0.39726001 6:-1 7:1 8:0.16030499 9:-1 10:-0.87096798 12:-1 13:1 #
-0.12345879654213356979575166860741 1:0.166667 2:1 3:0.33333299 4:0.056603801 5:-1 6:1 7:-1 8:0.55725199 9:-1 10:-0.93548399 11:-1 12:-0.33333299 13:1 #
0.12345879654213356979575166860741 1:0.41666701 2:-1 3:1 4:-0.73584902 5:-0.34703201 6:-1 7:-1 8:0.49618301 9:1 10:-0.41935501 12:0.33333299 13:-1 #
0.12345879654213356979575166860741 1:0.083333299 2:-1 3:1 4:0.62264198 5:-0.082191803 6:-1 8:-0.29771 9:1 10:0.096774198 12:-1 13:-1 #
0.12345879654213356979575166860741 1:0.375 2:-1 3:1 4:-0.132075 5:-0.35159799 6:-1 7:1 8:0.35877901 9:-1 10:0.16129 11:1 12:0.33333299 13:-1 #
-0.12345879654213356979575166860741 1:-0.33333299 2:-1 3:1 4:-0.169811 5:-0.49771699 6:-1 7:1 8:0.236641 9:1 10:-0.93548399 12:-1 13:-1 #
-0.12345879654213356979575166860741 1:-0.29166701 2:-1 3:1 4:-0.169811 5:-0.46575299 6:-1 7:1 8:0.236641 9:1 10:-1 12:-1 13:-1 #
0.12345879654213356979575166860741 1:0.375 2:1 3:-0.33333299 4:-0.50943398 5:-0.29223701 6:-1 7:1 8:-0.51144999 9:-1 10:-0.54838699 12:-0.33333299 13:1 #
0.12345879654213356979575166860741 1:0.041666701 2:1 3:-0.33333299 4:0.84905702 5:-0.28310499 6:-1 7:1 8:0.89313 9:-1 10:-1 11:-1 12:-0.33333299 13:1 #
0.12345879654213356979575166860741 1:-0.29166701 2:1 3:1 4:-0.50943398 5:-0.43835601 6:-1 7:1 8:0.114504 9:-1 10:-0.74193501 11:-1 12:-1 13:1 #
-0.12345879654213356979575166860741 1:0.625 2:1 3:0.33333299 4:-0.54716998 5:-0.31050199 6:-1 7:-1 8:0.22137401 9:-1 10:-0.67741901 11:-1 12:-0.33333299 13:1 #
-0.12345879654213356979575166860741 1:0.166667 2:1 3:1 4:-0.132075 5:-0.69862998 6:-1 7:-1 8:0.17557301 9:-1 10:-0.87096798 12:-1 13:0.5 #
0.12345879654213356979575166860741 1:0.33333299 2:-1 3:1 4:-0.037735801 5:-0.17351601 6:-1 7:1 8:0.14503799 9:1 10:-0.67741901 12:-1 13:1 #
-0.12345879654213356979575166860741 1:0.041666701 2:1 3:-0.33333299 4:-0.73584902 5:-0.16438399 6:-1 7:-1 8:0.29771 9:-1 10:-1 11:-1 12:-1 13:1 #
-0.12345879654213356979575166860741 1:-0.29166701 2:-1 3:0.33333299 4:-0.094339602 5:-0.76712298 6:-1 7:1 8:0.35877901 9:1 10:-0.54838699 11:1 12:-1 13:-1 #
0.12345879654213356979575166860741 1:-0.166667 2:1 3:0.33333299 4:-0.54716998 5:-0.89497697 6:-1 7:1 8:-0.16030499 9:-1 10:-0.74193501 11:-1 12:1 13:-1 #
-0.12345879654213356979575166860741 1:-0.5 2:1 3:0.33333299 4:-0.320755 5:-0.59817398 6:-1 7:1 8:0.48091599 9:-1 10:-0.354839 12:-1 13:-1 #
0.12345879654213356979575166860741 1:-0.29166701 2:1 3:0.33333299 4:0.056603801 5:-0.52054799 6:-1 7:-1 8:0.16030499 9:-1 10:0.16129 12:-1 13:-1 #
0.12345879654213356979575166860741 1:-0.58333302 2:1 3:1 4:-0.54716998 5:-0.575342 6:-1 7:-1 8:0.053435098 9:-1 10:-0.612903 12:-1 13:1 #
0.12345879654213356979575166860741 1:0.33333299 2:1 3:-1 4:-0.24528299 5:-0.50684899 6:-1 7:-1 8:0.12977099 9:-1 10:-0.16129 12:0.33333299 13:-1 #
-0.12345879654213356979575166860741 1:-0.41666701 2:1 3:0.33333299 4:-0.320755 5:-0.136986 6:-1 7:-1 8:0.38931301 9:-1 10:-0.387097 11:-1 12:-0.33333299 13:-1 #
-0.12345879654213356979575166860741 1:0.208333 2:-1 3:1 4:-0.886792 5:-0.442922 6:-1 7:1 8:-0.22137401 9:-1 10:-0.67741901 12:-1 13:-1 #
0.12345879654213356979575166860741 1:0.166667 2:1 3:0.33333299 4:-0.358491 5:-0.52968001 6:-1 7:1 8:0.20610701 9:-1 10:-0.87096798 12:-0.33333299 13:1 #
0.12345879654213356979575166860741 1:-0.41666701 2:-1 3:1 4:-0.28301901 5:-0.0182648 6:1 7:1 8:-0.0076335901 9:1 10:-0.032258101 12:-1 13:1 #
0.12345879654213356979575166860741 1:0.54166698 2:1 3:1 4:-0.66037703 5:-0.607306 6:-1 7:1 8:-0.068702303 9:1 10:-0.96774203 11:-1 12:-0.33333299 13:-1 #
0.12345879654213356979575166860741 1:-0.75 2:1 3:1 4:-0.39622599 5:-0.287671 6:-1 7:1 8:0.29771 9:1 10:-1 11:-1 12:-1 13:1 #
-0.12345879654213356979575166860741 1:-0.083333299 2:1 3:-1 4:-0.41509399 5:-0.60273999 6:-1 7:1 8:-0.17557301 9:1 10:-0.54838699 11:-1 12:-0.33333299 13:-1 #
-0.12345879654213356979575166860741 1:0.125 2:1 3:-1 4:-0.50943398 5:-0.69406402 6:-1 7:1 8:0.38931301 9:-1 10:-0.387097 12:-1 13:1 #
0.12345879654213356979575166860741 1:-0.375 2:1 3:1 4:-0.69811302 5:-0.67579901 6:-1 7:1 8:0.618321 9:-1 10:-1 11:-1 12:-0.33333299 13:-1 #
0.12345879654213356979575166860741 1:-0.375 2:1 3:1 4:-0.66037703 5:-0.251142 6:-1 7:1 8:0.251908 9:-1 10:-1 11:-1 12:-0.33333299 13:-1 #
0.12345879654213356979575166860741 1:0.25 2:1 3:0.33333299 4:-0.39622599 5:-0.57990903 6:1 7:-1 8:-0.038167901 9:-1 10:-0.29032299 12:-0.33333299 13:0.5 #
-0.12345879654213356979575166860741 1:-0.45833299 2:1 3:0.33333299 4:-0.50943398 5:-0.47945201 6:1 7:-1 8:0.87786299 9:-1 10:-0.74193501 11:1 12:-1 13:1 #
0.11182786067962086073990235490783 1:0.625 2:1 3:0.33333299 4:0.62264198 5:-0.32420099 6:1 7:1 8:0.20610701 9:1 10:-0.48387101 12:-1 13:1 #
-0.12345879654213356979575166860741 1:0.54166698 2:1 3:1 4:-0.50943398 5:-0.196347 6:-1 7:1 8:0.22137401 9:-1 10:-0.87096798 12:-1 13:-1 #
-0.12345879654213356979575166860741 1:0.166667 2:-1 3:1 4:-0.358491 5:-0.191781 6:-1 7:1 8:0.34351099 9:-1 10:-1 11:-1 12:-0.33333299 13:-1 #
-0.12345879654213356979575166860741 1:0.45833299 2:-1 3:0.33333299 4:-0.132075 5:-0.146119 6:-1 7:-1 8:-0.053435098 9:-1 10:-0.93548399 11:-1 12:-1 13:1 #
-0.12345879654213356979575166860741 1:0.25 2:1 3:1 4:-0.169811 5:-0.33790001 6:-1 7:1 8:0.69465601 9:-1 10:-1 11:-1 12:-1 13:-1 #
0.12345879654213356979575166860741 1:-0.125 2:1 3:0.33333299 4:-0.132075 5:-0.51141602 6:-1 7:-1 8:0.40458 9:-1 10:-0.80645198 12:-0.33333299 13:1 #
-0.12345879654213356979575166860741 1:-0.041666701 2:1 3:0.33333299 4:0.47169799 5:-0.66666698 6:1 7:-1 8:0.38931301 9:-1 10:-0.83871001 11:-1 12:-1 13:1 #
0.12345879654213356979575166860741 1:-0.45833299 2:1 3:1 4:-0.20754699 5:-0.136986 6:-1 7:-1 8:-0.17557301 9:1 10:-0.41935501 12:-1 13:0.5 #
0.020709280936292595587389087086194 1:-0.75 2:1 3:1 4:-0.50943398 5:-0.671233 6:-1 7:-1 8:-0.0992366 9:1 10:-0.48387101 12:-1 13:1 #
0.039075049603736256020880546202534 1:0.041666701 2:1 3:1 4:-0.50943398 5:-0.71689498 6:-1 7:-1 8:-0.35877901 9:-1 10:-0.54838699 12:-0.33333299 13:1 #
-0.057690275650136235707776677372749 1:0.041666701 2:1 3:1 4:-0.132075 5:-0.484018 6:-1 7:-1 8:0.35877901 9:-1 10:-0.612903 11:-1 12:-1 13:-1 #
